//Numpy array shape [1, 32, 32]
//Min -2.164369821548
//Max 2.317160844803
//Number of zeros 512

#ifndef W29_H_
#define W29_H_

#ifndef __SYNTHESIS__
qdense_phi_2_weight_t w29[1024];
#else
qdense_phi_2_weight_t w29[1024] = {0.000000, 0.813652, 0.000000, 0.306357, 0.204604, 0.274677, 0.769372, -0.245836, -0.000000, -0.043106, -0.000000, 0.515683, 0.000000, 0.444623, 0.000000, 0.024312, -0.000000, -0.000000, 0.000000, -0.000000, -0.000000, 0.000000, 0.357626, 0.000000, 0.000000, 0.367382, -0.000000, 0.000000, 0.886145, 0.000000, 0.000000, 0.883907, -0.457502, -1.227445, 0.000000, -0.257647, 0.000000, 0.000000, -0.460166, 0.294173, -0.900094, 1.744492, -0.000000, -0.822730, 0.000000, -0.899245, 0.000000, -0.567603, -0.000000, 0.000000, 0.000000, 0.000000, 0.561779, -0.488244, -0.506597, 0.000000, 0.000000, -0.596562, -1.027367, -1.186453, -0.000000, 1.960418, 0.000000, -2.164370, 0.038315, -0.000000, 0.000000, 0.000000, 0.000000, 0.149733, -0.000000, 0.211534, -0.000000, 0.514785, -0.000000, -0.000000, 0.000000, -0.437109, 0.000000, 0.000000, -0.000000, 0.000000, -0.773577, 0.000000, -0.000000, 0.136002, -0.000000, 0.000000, 0.000000, 0.498235, 0.696078, 0.000000, -0.000000, 0.000000, 0.000000, -0.493115, 0.519906, -0.444253, 0.000000, -0.666351, -0.624883, 0.000000, -0.000000, -0.736781, -0.000000, -0.335144, 1.304512, -0.000000, 0.000000, -0.000000, 0.000000, -0.000000, 1.480291, -0.000000, 0.668150, -0.422116, -0.000000, 0.000000, 0.158437, -0.146781, 0.000000, 0.354843, -0.056940, 0.000000, -0.165032, -0.666845, 0.000000, 0.334362, -0.699025, -0.000000, 0.000000, 0.067340, -0.065878, -0.462289, 0.116274, -0.000000, 0.000000, 0.418115, -0.000000, -0.000000, -0.000000, -0.940942, 0.000000, -0.000000, -0.256894, -0.000000, 0.122732, -0.082990, 0.261866, -0.418673, 0.021484, 0.000000, 0.000000, -0.351904, 1.133037, -0.221067, -0.075066, 0.000000, 0.000000, 0.233581, 0.000000, -0.362885, 0.000000, 0.311109, 0.000000, 0.556765, -0.000000, -0.653085, -0.000000, 0.000000, -0.000000, -0.630777, 0.000000, -0.653056, 0.000000, -0.819042, 0.456707, 0.000000, -0.632720, -0.000000, 0.587611, -0.304612, -0.000000, 0.289034, 0.000000, -0.000000, -0.000000, -0.388417, -0.000000, 0.756520, -0.000000, 0.000000, 0.000000, -0.094875, 0.000000, -0.569093, -0.930487, 0.000000, -0.000000, -0.000000, 0.571501, 0.000000, -0.000000, -0.000000, 0.000000, -0.447375, 0.000000, 0.000000, -0.000000, 0.000000, 0.000000, 1.748956, 0.783056, 0.000000, -0.000000, 0.652130, 0.000000, -0.000000, -0.000000, 0.000000, -0.000000, 0.000000, 0.000000, -1.333724, 0.000000, -0.000000, 0.000000, 0.382006, -0.000000, 0.600603, -0.000000, 1.247820, 0.744076, -0.416786, -0.000000, 0.203373, 0.000000, 0.665735, 0.000000, 0.143001, 0.141652, 0.000000, 0.000000, -0.000000, 0.258061, 0.792224, 0.340453, -1.440432, 0.000000, -0.000000, 0.945539, 0.395885, 0.507730, 0.000000, -0.000000, -0.000000, -0.000000, -0.000000, 0.000000, 0.000000, -0.214131, -1.184039, -0.473140, -0.225595, 0.305193, 0.242664, 1.628735, -0.111767, 0.000000, 0.000000, -0.000000, -1.148676, 0.053666, 0.000000, -0.618311, 0.708718, -0.667978, -0.291008, -0.454919, -0.000000, 0.000000, -0.000000, 0.135294, -0.389017, -0.000000, -0.364174, -0.000000, 0.832102, 0.988397, 1.138008, 0.000000, 0.581035, -1.465226, 0.000000, -0.485321, 0.500482, -0.826943, -0.644543, -0.000000, 0.192439, -0.000000, 0.181943, 0.000000, -0.165215, -0.000000, 0.000000, 0.576053, -1.269438, -0.105761, -1.308267, -0.000000, -0.411354, -0.000000, -0.494408, -1.199251, 0.000000, -1.511124, 1.218719, 0.000000, 0.362048, 0.000000, -0.090124, 0.000000, 0.196165, -0.858083, -0.601908, -0.000000, -0.000000, -0.696579, 0.079882, -0.342625, 0.596172, 0.000000, -0.000000, 0.000000, 0.540856, -1.883717, -0.000000, 0.830136, 1.417071, -0.134589, -0.131451, -0.620827, 0.000000, 0.000000, -0.546972, -0.269953, 0.911664, -0.115875, -0.387703, 0.000000, -0.422668, 0.000000, 0.523277, 0.000000, 0.411410, -0.176865, 0.286530, -0.589801, -0.652393, -0.603987, 0.466721, 0.548877, 0.689086, 0.000000, -0.414540, 0.000000, -0.492546, -0.842142, 0.000000, -0.181915, 0.000000, -1.361545, -0.166814, -0.151746, -0.000000, 0.000000, -0.702642, 0.097090, -0.413897, -0.083385, 1.013357, -0.000000, 0.508990, 0.000000, 0.350223, 0.000000, 0.461034, 0.000000, 0.000000, -0.000000, -0.000000, -0.071565, 0.916294, 0.016750, 0.220844, -0.000000, 0.290291, 0.000000, -0.299945, -0.419074, 0.000000, -0.368535, 0.000000, -0.000000, 0.738990, -0.000000, 0.070266, 0.000000, 0.129942, -0.000000, 0.333291, -0.101210, -0.570193, 0.000000, 0.303519, 0.000000, -0.000000, -0.000000, -0.393991, -0.217558, 0.000000, -0.000000, 0.176452, -0.000000, -0.876444, -0.140701, -0.187555, 0.000000, 0.000000, 0.000000, -0.289352, -0.564201, 0.000000, 1.134919, -0.023572, -0.420515, 0.851542, -0.164755, 0.000000, 0.000000, -0.000000, -0.000000, 0.000000, -1.033451, 0.921553, 0.000000, 0.396819, 0.000000, -0.000000, 0.000000, -0.117360, -0.000000, 0.000000, -0.176461, -0.000000, -0.000000, 1.296723, -0.250626, -0.496100, 0.000000, -1.270463, 0.000000, -1.194531, -0.000000, 0.000000, 0.000000, -0.000000, -0.385885, 0.305610, -0.338895, 0.000000, 0.000000, -0.000000, 0.000000, 0.000000, -0.000000, 0.000000, 0.000000, 0.116024, 0.000000, -0.676563, 0.000000, 0.000000, -0.133384, 0.476853, -0.189944, -0.000000, -0.000000, -0.259014, -0.395753, -0.786670, 0.000000, -0.106978, 0.000000, -0.531174, -0.000000, 0.000000, 0.376049, -0.335973, -0.124501, 0.000000, -0.000000, 0.000000, 0.000000, -0.213685, -0.000000, 0.000000, -0.000000, 0.965216, 0.000000, -0.000000, -0.866856, -0.000000, 0.000000, -0.105053, -0.000000, 0.302280, 0.119319, 0.000000, -0.000000, 0.331558, -0.000000, -0.000000, -0.000000, -0.578332, -0.000000, -0.241179, 0.000000, 0.000000, 0.066297, -0.000000, -0.256014, -0.440101, 0.000000, -0.084494, 0.000000, -0.428816, 0.000000, -0.194974, 0.000000, 0.000000, -0.000000, 0.454118, 0.000000, 0.099693, 0.000000, 0.000000, 0.763275, 0.348343, -0.000000, -0.321780, 0.512589, -0.000000, -0.000000, -0.190356, 0.000000, 0.201993, 0.000000, -0.436811, -0.000000, 0.000000, -0.655402, -0.789483, -0.000000, 0.000000, 0.246524, 0.000000, 0.000000, -0.000000, -0.131070, -0.204944, -0.000000, 0.000000, 0.000000, 0.693625, 0.238124, -0.000000, 0.000000, 0.172909, -0.000000, -0.701993, -0.000000, 0.000000, -0.000000, -0.000000, -0.000000, -0.000000, 0.000000, -0.333038, 0.000000, 0.290647, -0.222091, 0.000000, 0.000000, -0.074350, 0.414255, 0.000000, -0.000000, 0.000000, 0.000000, 0.119869, 1.130447, 0.000000, -0.094126, 0.000000, 0.000000, -0.368393, -0.200568, -0.000000, 0.000000, 0.501509, 0.803501, -0.312240, -0.375181, -0.695590, -0.319177, -0.000000, -0.029830, -0.000000, 0.000000, 0.000000, -0.000000, -0.689897, -0.526569, 0.000000, -0.565149, 0.273284, -1.097847, -0.374521, -0.773160, 0.000000, 0.000000, -0.000000, -0.566241, 0.000000, -0.000000, 0.260484, 0.000000, -0.362674, 0.000000, -0.323292, 0.000000, -0.000000, -0.000000, -0.000000, -0.220752, -0.046183, -0.385334, 0.000000, -0.224798, -0.000000, -0.000000, -0.505281, 0.000000, 0.000000, -0.941279, 0.000000, 0.854552, 0.634716, -0.758319, -0.201548, -0.356653, 0.000000, 0.000000, -0.162778, 0.000000, 0.000000, 0.000000, 0.675501, -0.000000, -0.643977, 0.000000, 0.103369, 0.000000, -0.160935, -0.000000, -0.539796, -0.673870, 0.086418, 0.177305, 0.553886, 1.730136, -0.000000, 0.000000, 0.000000, 0.000000, -0.279710, -0.538823, 0.000000, -0.372303, 0.370870, -0.363798, -0.467008, 0.181777, -0.000000, 0.000000, 0.000000, 0.120566, -0.412551, -0.145746, 0.474450, 0.000000, 0.686371, 0.000000, -0.165768, 0.000000, 0.181432, -0.064901, 0.290614, -0.803499, -0.186080, -0.777499, -0.236223, -0.000000, -0.248015, 0.000000, -0.565778, 0.000000, -1.093641, -0.269531, -0.000000, 0.000000, -0.330021, -0.180076, 0.000000, -0.168879, -0.428044, 0.000000, -0.235234, 0.000000, -0.519567, 0.000000, 0.478391, 0.000000, -1.461570, 0.000000, -0.251396, 0.000000, -0.264662, -0.000000, 0.000000, -0.000000, -0.632699, -0.397378, 0.000000, -0.000000, -0.000000, 0.000000, -0.000000, -0.000000, -0.270646, -0.503974, 0.000000, -0.350723, 0.000000, -1.136170, -0.486866, -0.000000, 0.162139, 0.000000, -0.000000, -0.000000, 0.000000, -0.000000, 0.367203, 0.000000, -0.936912, 0.000000, -0.000000, -0.000000, -0.000000, 0.206189, 0.000000, -0.000000, -0.524388, -0.000000, 0.000000, 0.388598, 0.773551, 0.000000, -0.000000, 0.000000, 0.915143, -0.352529, -0.000000, 0.288333, -0.000000, -0.000000, 0.000000, -0.576355, 0.000000, 0.000000, -0.000000, 0.000000, 0.000000, 0.303086, 0.885928, 0.000000, 0.243898, 0.000000, -0.328746, 0.000000, -0.000000, 0.144191, 0.082218, -0.000000, -0.760496, -0.000000, -1.206457, 0.495049, -0.000000, -0.000000, 0.677714, 0.000000, 0.473339, -0.335605, 0.000000, 0.185901, 0.000000, -0.000000, 0.866870, 0.190104, 0.000000, 0.000000, 0.254250, -0.254588, -0.142335, 0.273072, 0.040625, 0.000000, -0.000000, -0.212573, 0.083660, 0.000000, -0.000000, -0.000000, -1.526220, -0.553189, 0.173756, 0.305785, 0.946709, 2.317161, -0.000000, 0.000000, 0.446498, 0.000000, -0.556103, 0.000000, -0.000000, -1.694229, 0.776832, -0.375852, -0.355034, -0.300096, 0.199987, 0.000000, 0.192066, -0.068528, -0.373758, -0.186688, -0.426014, 0.000000, 0.901155, 0.000000, -0.000000, -0.000000, 0.009670, -0.000000, 0.000000, -0.000000, -0.000000, 0.256896, -0.000000, 0.113700, -0.338730, -0.000000, -0.021241, 0.000000, 0.260937, 0.293154, 0.000000, 0.000000, -0.000000, 0.174248, 0.000000, 0.738007, 0.000000, 0.000000, 0.424006, -0.000000, -0.824254, -0.000000, -0.121144, -0.000000, -0.000000, -0.136229, -0.000000, 0.000000, 0.343002, 0.000000, 0.055620, -0.288310, -0.000000, 0.901440, 0.276978, 0.000000, 0.174524, 0.000000, 0.567549, 0.000000, 0.684423, 1.841590, 0.000000, -1.363819, -0.572516, 0.518363, 0.516313, -0.000000, 0.080742, 0.000000, -0.000000, 0.086208, 0.288300, -0.952428, -0.497256, -0.000000, -0.258029, -0.032334, -0.824770, 0.000000, -0.607705, 0.000000, 0.117771, 1.373714, -0.000000, 0.712988, 0.000000, -0.821053, -0.000000, -0.000000, -0.000000, -0.000000, 0.000000, -0.000000, 0.000000, 0.000000, -0.000000, 0.485812, 0.000000, 0.380101, 0.000000, 0.000000, 1.643260, -0.000000, 0.000000, -0.000000, 0.000000, 0.000000, -0.000000, 0.270251, -0.087357, 0.000000, -0.376973, -0.000000, -0.195680, -0.682513, -0.272962, -0.000000, 0.151055, 1.178830, -0.482271, 0.000000, -0.244508, -0.000000, -0.498413, -0.000000, -0.000000, 0.000000, -0.000000, 0.059736, 0.000000, -0.109269, 0.194038, 0.000000, -0.501863, -2.037293, 0.061300, -0.000000, 0.000000, -0.000000, -0.711182, 0.000000, 0.347403, 0.000000, -0.407968, -0.208175, 0.848312, 0.104907, -0.000000, 0.679657, -0.653829, -0.000000, -0.000000, 0.000000, -0.239819, 0.000000, 0.322396, 0.434819, 0.000000, 0.193269, -0.000000, 0.288530, -0.710448, 0.213744, 0.506425, 0.000000, 0.162985, 0.261604, 0.656552, -0.000000, -0.372855, -0.000000, -0.000000};

#endif

#endif
