//Numpy array shape [21, 16]
//Min -0.623983383179
//Max 0.871118128300
//Number of zeros 0

#ifndef W26_H_
#define W26_H_

#ifdef __HLS4ML_LOAD_TXT_WEIGHTS__
qdense_phi_1_weight_t w26[336];
#else
qdense_phi_1_weight_t w26[336] = {-0.234375, -0.031250, 0.109375, 0.359375, 0.062500, 0.109375, 0.156250, 0.390625, -0.625000, -0.031250, 0.171875, 0.281250, 0.406250, -0.203125, -0.203125, 0.015625, 0.093750, -0.359375, -0.015625, 0.015625, -0.171875, -0.359375, -0.031250, -0.093750, -0.296875, 0.187500, 0.281250, -0.031250, 0.156250, -0.078125, -0.031250, -0.031250, -0.234375, -0.312500, 0.046875, -0.109375, 0.390625, 0.015625, -0.015625, 0.078125, 0.046875, 0.265625, 0.062500, 0.015625, -0.203125, 0.015625, -0.546875, 0.015625, 0.015625, 0.046875, 0.046875, -0.609375, -0.156250, -0.250000, -0.390625, 0.093750, -0.203125, 0.125000, 0.171875, -0.078125, 0.031250, 0.375000, -0.078125, 0.687500, 0.078125, -0.046875, 0.000000, 0.281250, 0.015625, 0.093750, -0.375000, -0.015625, -0.062500, -0.031250, -0.015625, 0.000000, 0.000000, -0.265625, 0.046875, 0.000000, 0.078125, 0.000000, 0.156250, -0.078125, -0.109375, 0.031250, -0.015625, 0.031250, 0.015625, -0.062500, 0.000000, -0.109375, -0.078125, 0.015625, 0.015625, 0.031250, 0.187500, -0.140625, -0.234375, 0.015625, -0.125000, -0.281250, 0.015625, 0.312500, -0.015625, 0.093750, 0.234375, 0.000000, -0.250000, 0.234375, -0.234375, -0.218750, -0.265625, 0.296875, -0.359375, -0.062500, 0.078125, 0.578125, 0.531250, 0.062500, 0.265625, -0.234375, -0.171875, -0.140625, -0.250000, 0.312500, 0.046875, -0.093750, -0.250000, -0.203125, 0.031250, -0.296875, -0.343750, -0.093750, -0.296875, 0.125000, 0.593750, -0.171875, -0.093750, -0.171875, -0.312500, -0.109375, -0.031250, -0.109375, 0.156250, -0.187500, -0.109375, 0.187500, 0.031250, 0.218750, -0.437500, -0.484375, -0.250000, -0.171875, -0.093750, 0.171875, -0.375000, -0.234375, 0.312500, -0.078125, 0.156250, -0.140625, -0.078125, -0.265625, -0.218750, -0.093750, -0.156250, -0.296875, -0.156250, 0.203125, -0.312500, -0.265625, -0.250000, 0.093750, 0.203125, -0.062500, 0.156250, -0.062500, -0.078125, 0.125000, -0.250000, 0.093750, -0.265625, -0.281250, -0.062500, 0.062500, -0.281250, -0.093750, -0.203125, -0.296875, 0.031250, 0.078125, -0.390625, -0.312500, -0.156250, 0.000000, -0.156250, -0.187500, -0.031250, -0.453125, 0.171875, -0.171875, 0.156250, 0.187500, -0.171875, 0.125000, -0.203125, -0.046875, -0.031250, 0.265625, 0.093750, -0.140625, -0.218750, 0.046875, -0.015625, 0.000000, -0.062500, -0.062500, -0.359375, 0.109375, 0.000000, 0.078125, 0.156250, -0.250000, 0.875000, 0.312500, 0.093750, -0.078125, 0.000000, -0.453125, -0.015625, 0.000000, -0.093750, 0.296875, -0.359375, 0.250000, 0.078125, 0.093750, 0.140625, -0.125000, 0.015625, 0.031250, -0.046875, -0.187500, 0.062500, 0.093750, 0.062500, 0.031250, 0.062500, -0.078125, -0.125000, -0.031250, 0.015625, -0.109375, 0.109375, 0.031250, 0.375000, 0.000000, -0.453125, 0.187500, 0.578125, 0.000000, 0.015625, -0.046875, 0.281250, 0.187500, 0.218750, -0.250000, 0.390625, 0.093750, -0.328125, 0.015625, 0.046875, 0.203125, 0.031250, -0.093750, -0.593750, -0.125000, -0.203125, 0.265625, 0.000000, -0.250000, 0.328125, -0.156250, -0.062500, 0.062500, 0.046875, -0.265625, 0.046875, -0.015625, 0.109375, 0.015625, -0.031250, 0.234375, 0.312500, -0.062500, -0.328125, 0.000000, -0.156250, -0.046875, -0.156250, -0.156250, 0.359375, 0.078125, -0.218750, -0.296875, 0.093750, 0.125000, -0.187500, -0.609375, -0.296875, -0.093750, 0.000000, -0.125000, 0.046875, -0.312500, -0.125000, 0.078125, 0.078125, -0.140625, 0.031250, -0.078125, 0.218750, -0.093750, -0.140625, 0.109375, 0.156250, 0.031250, 0.312500, 0.062500, 0.000000, -0.015625, 0.015625, 0.046875, 0.093750, 0.046875};
#endif

#endif
